{
    "biases": [
        [
            [
                0.7233248980443403
            ],
            [
                -1.2163133288439147
            ],
            [
                0.09219249140235462
            ],
            [
                0.511397770183647
            ],
            [
                -1.214323858669026
            ],
            [
                -0.15150689815777324
            ],
            [
                -0.02657485868260156
            ],
            [
                0.5912657175002781
            ],
            [
                1.3838387276022603
            ],
            [
                -2.2637519597080638
            ],
            [
                -1.5094732598246492
            ],
            [
                3.8279864444545164
            ],
            [
                -0.1989373259595458
            ],
            [
                -1.4599475930545347
            ],
            [
                0.7662732952654895
            ],
            [
                -1.9447224337886864
            ],
            [
                0.92057655498613
            ],
            [
                -6.152937931808254
            ],
            [
                -0.8122183704786115
            ],
            [
                -1.4330334758115577
            ],
            [
                -2.3626534323823476
            ],
            [
                1.3767384973246959
            ],
            [
                1.0797327047105578
            ],
            [
                0.3359297930048679
            ],
            [
                1.0205544962945
            ],
            [
                -1.2644813085000222
            ],
            [
                1.3692064209876464
            ],
            [
                -1.6253856681685153
            ],
            [
                0.2679110965984645
            ],
            [
                -0.5485108876963495
            ]
        ],
        [
            [
                -1.2672667493667873
            ],
            [
                1.542586076512228
            ],
            [
                0.7776169004865837
            ],
            [
                -2.1490519200230342
            ],
            [
                -0.5717097680882912
            ],
            [
                -2.9540924665117094
            ],
            [
                -5.330800685645064
            ],
            [
                -0.6514445376923377
            ],
            [
                -2.9046947407808488
            ],
            [
                -1.0421665051414917
            ]
        ]
    ],
    "weights": [
        [
            [
                -0.08352146483768172,
                -0.029783344256590197,
                1.0135542470344414,
                0.3986022520381362,
                -1.0522066666449132,
                -0.641509115260811,
                0.8587173413069776,
                0.6933245468768435,
                0.11515044254660031,
                0.032447392097920594,
                -1.3658654605450695,
                -0.16922609790683352,
                1.0129756436091053,
                0.4392532785983479,
                1.3527924965622775,
                -2.025923209487999,
                1.3372570247432571,
                0.19309230032468985,
                -0.4590205178247504,
                1.0361106897847912,
                1.1011871958964938,
                -1.0885144643411289,
                1.1499331552481924,
                -0.5835220275248596,
                0.09675954224357662,
                1.1266279301783877,
                1.270056984516645,
                1.3411773293952853,
                -1.0134410262021567,
                -1.4044415874691616,
                -1.511261071848227,
                0.6239591083639127,
                -1.0592616717046723,
                1.8006083921128395,
                0.911238029970142,
                0.11793201294278985,
                0.5567928281932497,
                1.016762981379473,
                -1.4845042729192057,
                -0.6137910002485151,
                -0.915283915912199,
                0.9493386786160003,
                -1.0816593276571262,
                0.3182564744381163,
                -0.2173798511809872,
                1.1181606622217766,
                -0.7023347051271306,
                -0.05001752560534952,
                0.39364825173535567,
                0.1888840206069136,
                0.1388062469261302,
                -0.6914186888678904,
                -1.570009251326248,
                -0.9620876325707081,
                0.7524852541537894,
                -0.6115028759360162,
                -1.9407427798441776,
                -0.31029724502901557,
                -0.08367502332811458,
                -2.1400430020726793,
                -0.2388038848349846,
                0.8001192543529425,
                1.2790510994533297,
                -0.3317981859873082,
                1.2107540329018132,
                -3.4954801607929746,
                -1.6414977386245218,
                0.9039105867180492,
                0.6836029980520395,
                0.632325516315736,
                -0.7387558712438679,
                -2.184467756152177,
                -0.5503145610377579,
                -0.4643399288288848,
                -0.5555842695857249,
                -1.7832171869188873,
                1.2571547243618055,
                1.0881338667919527,
                -0.44537350620250504,
                0.08758361614532406,
                -0.9870600079507597,
                -1.2387632999833025,
                1.1284456133533645,
                0.8268194360362295,
                -1.368456984192203,
                -0.5070410898187624,
                -1.807004749623533,
                1.1321750099215164,
                -1.7159689157595628,
                -0.13189733305628606,
                -0.5246088381518405,
                -0.3361675051237029,
                -0.7764172203985396,
                1.22528851523925,
                -1.6745534630471524,
                -1.3173653872305642,
                -0.9750495992154733,
                0.14065233434030452,
                -0.8894308508130062,
                1.5717365215375123,
                -0.7588524340605763,
                0.5133766467122943,
                -0.16639625391156382,
                1.9294658185681928,
                -2.868221203074829,
                0.1880873528755592,
                -0.539048665112479,
                -1.12500541873838,
                -0.04652710442859747,
                -1.1661988138740673,
                2.722978197344905,
                -0.3538137188228897,
                0.330748661869183,
                0.344581100699736,
                1.5295219430719416,
                0.2998177257669319,
                1.5657916038691801,
                -1.152935349798045,
                -0.07134975700982753,
                -0.5228091061798493,
                0.7686089445578579,
                0.10068769193904996,
                -1.6026210586732652,
                -1.1744251928085663,
                -1.3561496313898915,
                -0.6207017262826455,
                0.8802400072071466,
                -0.3556664829434519,
                1.0129941120716826,
                1.8945486541576082,
                0.4230449070155447,
                1.52775837111597,
                2.414411013324949,
                0.7267572148553602,
                -0.8011581068477633,
                -1.020312937060766,
                -0.39237735653828215,
                -1.4607386793069337,
                0.703559588139155,
                1.5468236317931074,
                -0.2778567125284076,
                0.5957225127336702,
                0.6673959922492609,
                -0.38989679417052653,
                1.390842832806743,
                0.517028411815134,
                0.7144201345992361,
                -0.05275758720787392,
                -0.6886764419404373,
                1.5122087414881091,
                0.006869296555338375,
                -1.6642764683223885,
                -0.4108493739789581,
                0.9403744475123982,
                0.7881208142710426,
                -1.3838079734089297,
                -0.8662124421437303,
                -1.3546727898084612,
                2.109309672479075,
                0.48588714265586785,
                0.3183033201384548,
                1.367535359995096,
                1.822799153439073,
                0.3568805215403225,
                -0.19221150263441966,
                2.4594033849790424,
                1.0768638825775765,
                -0.9012065838146511,
                1.607641324807871,
                -1.1215260252792116,
                1.6620153380946383,
                0.355129943500045,
                -1.4979210775479235,
                2.39546287324572,
                -0.09230642277148711,
                -0.3557288714856232,
                1.654295969503403,
                -0.13011565457236063,
                1.1547895562306034,
                -0.4610653369379589,
                0.1983025450141739,
                0.5742331092043919,
                -0.07528817399967891,
                -1.459024559970669,
                -3.0699035897852647,
                -1.6164770889041224,
                -1.1060761869029567,
                0.9659405414107107,
                0.5330712848790851,
                0.21659273330098075,
                1.8770575712861344,
                2.4683694902043856,
                0.48248085454780676,
                1.825009802742091,
                -1.4446101251086743,
                -1.5280132528011534,
                0.3115060499078479,
                -0.9945171426174307,
                0.2758256582624513,
                0.8175632224338649,
                0.3861658199543274,
                -0.0085530293822001,
                0.3294446445381858,
                -0.7399184880262878,
                0.20254116834417304,
                1.7662234637574756,
                -0.3714294446796392,
                0.881068983465675,
                0.944340046065551,
                0.7348859989239324,
                -1.3391686908662432,
                -0.9792662691100448,
                -3.5044093808222927,
                -1.2918646157242664,
                1.1729504633018892,
                0.5008486373295608,
                -0.19511602348370186,
                -0.322554250613726,
                0.7357787841119765,
                1.7479247013715251,
                -0.36355191694422134,
                0.7444969720534276,
                1.3781116735867585,
                0.995823806921391,
                -1.1006353765277288,
                0.7309520286029592,
                -0.4675268344987157,
                -0.21661105533411806,
                1.3898559204200542,
                0.0006391600214052762,
                -1.1669490270963092,
                0.9164098911341727,
                -1.5135975090379796,
                -0.6927869356410797,
                0.9719741322146144,
                -0.28873381272931514,
                0.7831849457446727,
                1.0362132964088175,
                -1.6825447051975528,
                -0.6302566519806712,
                -2.3006028974898243,
                -0.0887339551070922,
                0.06580280303261869,
                -0.8545352701988198,
                1.2757187640150554,
                -0.2647963396091289,
                0.9405767892418103,
                0.21773248480479407,
                1.3296377785842663,
                0.899032574255171,
                -1.3643843072293753,
                -1.3677961989242178,
                0.45576835422102424,
                -0.27855775566394897,
                -0.25020468351014263,
                -0.05334117928792632,
                0.573656873996562,
                1.5665171981145,
                -0.7598814154453775,
                0.0675853723570212,
                -0.7249955121094492,
                1.2106149061434086,
                0.04934179003265052,
                0.8283190927222258,
                1.0707933368508906,
                0.14569879429777455,
                -0.6695152429010375,
                -2.9949605226662745,
                -1.9326801627381391,
                -0.8213349245259918,
                -0.3417573655330354,
                0.09545131862511656,
                -0.7725867353581259,
                1.7669295450692255,
                0.6135784337038983,
                1.8039197125916244,
                2.0452891576271504,
                0.18396857851850054,
                0.6688719145700368,
                0.28909151817410333,
                0.23360804810156477,
                0.6690948975751643,
                0.007056669041212041,
                -0.7761859977600445,
                -1.6324691579327504,
                0.0991672955671257,
                -0.4669841964258062,
                -0.33231551595131514,
                0.2683906654041507,
                -0.520509469118759,
                -1.2983406956456738,
                0.020301426528163736,
                1.7582856718876927,
                0.054663292364201074,
                -0.6357675442908931,
                -2.3903579728755173,
                -1.2277810607462083,
                0.6154885201669082,
                0.34555717750813225,
                0.6713289207170632,
                -0.3150260592459143,
                -1.0291616540350712,
                0.4466259224122611,
                0.04224128310273786,
                0.1421592470218593,
                0.20233406165508266,
                -0.3717666928446574,
                -0.4400763868042499,
                2.1957400188126805,
                -0.7265923185654256,
                1.5221517981919075,
                -1.7515213978304398,
                0.05742346274930861,
                -1.0611753320067077,
                -1.6571072317733095,
                -0.9425274012201847,
                -1.321661619669659,
                -0.03599333042473645,
                -0.06990314517276018,
                -0.40353510909630697,
                0.7792641358248596,
                1.6079134166804732,
                -2.361905681916689,
                -2.4517656262307366,
                -0.32811391425655684,
                -1.2719462302221276,
                -0.5642791209132094,
                -0.7183396504716439,
                -0.9048911231487373,
                -1.4521335306931664,
                -0.21567292685264083,
                0.8883015615398001,
                -0.05133940498329195,
                -0.01893412697929033,
                -1.3148884340852007,
                1.983195927319248,
                1.2786353113886388,
                -1.466293886602441,
                -0.01354236205759597,
                1.419582753328077,
                -0.11061678179465534,
                -1.0628895578169448,
                0.7875451044763048,
                -1.259728711560885,
                -0.32680438730447,
                0.7051125236792914,
                0.4061091153882617,
                0.8429524914651989,
                2.5825002090652203,
                3.7306949459288514,
                -0.15040550496576194,
                -0.8222111613897899,
                -1.2951104857758928,
                0.4415383398970631,
                -1.560124631998841,
                0.3659196776935847,
                -0.576071140135224,
                0.20811622055847914,
                -0.24805163749273337,
                -0.05413957286474147,
                -0.1277108575209153,
                1.8803867944075319,
                -0.28114612907100994,
                -0.09958619331090456,
                1.0946899064461015,
                -1.5999924001755872,
                0.014943760368710398,
                0.751441969732339,
                -1.555109909860429,
                -0.5333395240911697,
                -0.8410831822455508,
                0.5181773083717345,
                0.7272148195232606,
                -0.5464938936403915,
                -0.6625019887624224,
                1.4003322446623432,
                1.4635218726256864,
                0.8919668296882663,
                -0.5356253985400736,
                -0.7862926423206011,
                -1.913376877557146,
                -1.130685284793138,
                0.15712559289486477,
                -1.1783690882278333,
                -0.7358534784391905,
                -1.71427398860178,
                -1.2533496185496642,
                -0.46619218841154114,
                0.11609392070585971,
                -0.23432115121390118,
                -0.4380373834833745,
                -0.3596366167916791,
                -0.3166259667723819,
                1.404021778129597,
                -1.1658193894051319,
                -0.8665563809520362,
                0.5149279117543425,
                0.25316526625304314,
                0.7714357699768885,
                1.1526544637430614,
                -1.0116101487545037,
                0.9688103166544328,
                0.2916736922783361,
                -0.0688960148869051,
                0.9754418210352888,
                0.7420259301157464,
                0.6448103300610443,
                -0.8731418590853953,
                -1.1197568183406104,
                0.5753477456096617,
                -0.6447694862312302,
                -0.054662746647259036,
                0.45814985513158923,
                -1.0069750928088743,
                0.9614182054232889,
                1.2734639680729993,
                0.5766991086036828,
                -0.11643565639872647,
                1.2923423859515362,
                -0.7886317196773595,
                -0.39562982806838765,
                0.9188422469840327,
                -0.8551373440548243,
                0.6907842413746179,
                -0.6238604307472934,
                0.05045649642092001,
                0.9190117226087859,
                -0.7036875146489635,
                0.30205691954999775,
                0.32827501304430723,
                0.16965157832541408,
                1.6710474993938644,
                1.494934918503714,
                -0.10650265028054202,
                -0.7383749407190723,
                0.11901406525862096,
                0.05471316727565608,
                -1.6040370764652225,
                0.08950645127946835,
                0.2597745959264975,
                -1.2343738371210868,
                0.9887655774286532,
                0.29094586460621374,
                -0.9814239914495495,
                -0.4348761332392082,
                -1.0308534223217585,
                -0.5561540434757016,
                -1.7232175023290548,
                -0.40499752029886066,
                -1.044348547067466,
                -1.1819035783397138,
                -1.2831674000654603,
                0.36342418268588184,
                1.1162528354758916,
                -1.5645334384099499,
                -0.5124628172132626,
                0.08630750544524524,
                0.5749408883056533,
                1.0993491025851996,
                -0.46768118983904877,
                1.0390189900805018,
                0.40403202079284567,
                0.29176010265650654,
                0.7060585589051728,
                -0.8975784882708957,
                -0.900895509434124,
                0.2909849437562652,
                0.26458928318884967,
                -1.6678119230388693,
                1.3192840881692776,
                -1.1458538083688854,
                0.910705050235636,
                0.3919689213044042,
                -1.6128975922655333,
                0.8780778432639206,
                -0.5434542607625243,
                2.5341392945026873,
                0.42241399008431557,
                0.6314957223610855,
                0.18754178189958154,
                -1.4393049949469432,
                0.6855221425550714,
                -0.9095974043965964,
                -0.4273987751074828,
                0.5327578476136346,
                1.2201730902033459,
                -0.5762606909472466,
                0.9284357512597156,
                0.597072667596641,
                -1.2637974705690942,
                -0.9772931712104446,
                -0.940227304523389,
                -0.30924794326160815,
                -0.8719343485720148,
                1.7713297437252535,
                1.2599888156002819,
                2.583115845939693,
                0.7215741508781832,
                1.8786795083583105,
                0.5859703866053256,
                2.1384006568043787,
                -0.8935010536028224,
                0.10450441716418987,
                -0.0952324167744624,
                0.5644806355752873,
                -0.08203466208669533,
                0.6202006932847004,
                -1.0443645806325932,
                -1.2670722181161334,
                -0.6734724694307872,
                1.4613319089252446,
                0.5828458434500704,
                1.2754496077401019,
                0.26969868093912536,
                0.17657683200724983,
                -0.12550508578915961,
                2.074569730024529,
                -0.7735607522130565,
                -0.05253102603320677,
                0.5348030122715749,
                0.9494869611659899,
                -0.3789256043997516,
                -1.5698151266968094,
                -0.033175121623129675,
                -0.9374912075960881,
                0.03966589215629554,
                1.794084009396962,
                0.02436594285239953,
                -0.04996704381421096,
                -1.8974472347200373,
                -0.2908687843975294,
                -0.7571711032424293,
                0.35159703312494084,
                -0.8489190778296933,
                1.0556477198392618,
                -0.16762848903193028,
                -0.3859054378535574,
                1.7414652005817652,
                0.7594000023192732,
                2.641982248917496,
                -0.14349420961448234,
                0.16738627224857128,
                0.8765534808234059,
                0.11067870716702315,
                1.0436665070514264,
                -0.05958192950995648,
                0.07006756719439268,
                0.449481488917638,
                -0.5623899373668474,
                -0.39214331562987415,
                0.061449106258177566,
                -0.5612066421487608,
                1.1399984260752516,
                2.026524683974911,
                -0.616018857788346,
                1.9616480088064023,
                -1.8480884722828503,
                0.9927108464611034,
                -0.309831714155799,
                -0.022338920786810285,
                -0.12184625147012088,
                -1.0586701253069637,
                0.26685234240236305,
                0.4899699204425487,
                0.016159794680679934,
                -0.3675194305201175,
                1.2706242622146142,
                0.46339423898509274,
                2.4172874262443536,
                2.3333975171502668,
                0.11780222489208521,
                1.2483973128047936,
                -0.7694363883270905,
                -0.40624247138036873,
                -0.8641729663067951,
                0.1865121131537818,
                -0.6014613871377607,
                1.5442304780581624,
                0.7292298884282715,
                0.4622605920337786,
                0.32917890855448256,
                3.0686293172674315,
                0.9576292155587011,
                2.4951036193536718,
                -0.7164235278772668,
                -0.31509062230810897,
                0.5174771684614385,
                0.6768788836927409,
                1.7307918630883932,
                1.9074886950892918,
                0.2898935436810856,
                -1.2269982740650272,
                -0.8041348772367308,
                0.6788883953939135,
                2.8093565339958255,
                3.970091020362609,
                -1.111244313595982,
                -0.02337317904521191,
                0.36180779129838453,
                1.2111293228271074,
                2.7890427218537934,
                0.8773068428805546,
                -0.09473921192043086,
                -0.024577879674718434,
                1.582100398952344,
                -0.3584579556201535,
                -0.3674969567024775,
                -0.2465810585437252,
                0.8072450286816072,
                0.087580122213542,
                -1.0051776425217485,
                0.9062929857433047,
                0.4411397990923326,
                0.9583661234468787,
                1.027819299142868,
                -0.3477298107652404,
                -0.8559740756247015,
                0.3834852406204705,
                0.8851312367201106,
                0.2039970118273338,
                1.0072195719932937,
                1.8091270178982328,
                0.34764852914289096,
                1.0296339331229136,
                0.8602875924567374,
                0.4074283658588007,
                -0.027788980325933334,
                0.678852476784226,
                1.2324753330309823,
                -1.1344212374619684,
                1.456181053512927,
                -1.459560407225373,
                -0.34037245787467574,
                -0.28060250541238774,
                0.32792753926099866,
                1.3009544346586266,
                1.5507094326700406,
                -1.8809916551450958,
                1.958556142935342,
                -0.8447879996254088,
                0.11729349410012223,
                -0.3356556031296369,
                0.9725356023478087,
                -1.7474606051818475,
                0.9788670207718174,
                -1.480176194480844,
                2.9073199636506373,
                -0.1680997300960156,
                -0.3897846543386777,
                0.4645234666074003,
                -0.32205039449290707,
                1.0396662838810946,
                0.7351021383408827,
                1.1387897567102523,
                -0.14064552512307013,
                -1.0857843664059874,
                1.1639176139453509,
                2.1416361367423753,
                -0.05260427009199089,
                1.1575172540403604,
                2.1192772633852126,
                0.7480181165091122,
                0.3787190216856787,
                -2.0714235073451435,
                0.00968959955337944,
                2.1676865653564823,
                0.22888992084796503,
                -0.27086348771461016,
                -0.07818409840695931,
                -0.35204520925696736,
                -1.0523616038190213,
                -1.5468982618987088,
                1.6172875587806368,
                1.6051275754343333,
                -0.8699781318326077,
                -1.9297464701973985,
                0.44312912138474475,
                0.4909884178513078,
                0.3844329965465815,
                -1.5088898668656856,
                -0.7328184329322042,
                0.18239882743329305,
                -0.39506610767606404,
                1.4447979197444822,
                1.1345725691016701,
                0.04150954169173512,
                1.354299222945568,
                0.2518872562993987,
                0.37610503892053665,
                0.49721668029622595,
                0.9482862055505885,
                -0.29644251910399744,
                -0.922031260079047,
                -2.4492257306939655,
                -0.16813359037683048,
                0.07005979560996388,
                -0.7303328629387953,
                1.7632768668122283,
                0.37382980613365435,
                1.2277959726955832,
                0.16479317760306939,
                0.18660678630681954,
                -0.8788885021236911,
                -0.8732991389481666,
                -0.07387105335080697,
                -1.2136965154176365,
                -0.9529648997152554,
                -0.9742864708085698,
                -2.2344290399894895,
                0.004570396585073653,
                -1.0852644206439157,
                -0.5319896532582814,
                -1.4330253727513806,
                -0.20632349557833005,
                1.200147165840344,
                0.7011342965215401,
                0.5948323247364942,
                -0.08712631188897618,
                1.3750810255668127,
                -0.06410358472293427,
                -0.04877829626768801,
                -2.4697462966743027,
                0.38737095654908904,
                -0.288637706264525,
                -0.9561803041524151,
                -0.8368476104743153,
                1.0280481319114343,
                0.7592950560817451,
                1.0316762090631624,
                0.8511157313076144,
                -3.462462692210944,
                0.28454968979710504,
                -1.3559809384931045,
                -0.5950357552931058,
                -0.1871139538697004,
                -0.5350793357164891,
                -1.223660481205185,
                -1.7204923178804874,
                0.9492850251890961,
                0.654063407655857,
                -0.8452627928825488,
                -0.710807657540267,
                -2.874319755195011,
                -2.4462247222659452,
                -0.5920775932567702,
                0.4501140763043087,
                -1.5712518229323116,
                -1.1023986127370289,
                -1.5241168808587937,
                -0.43641586843957,
                0.4897970929128614,
                -0.16293324303757598,
                -0.1105839195771367,
                1.0380678133188141,
                1.0738272085201215,
                -0.35027813883313097,
                0.9141926120415831,
                0.3168936947577289,
                0.2694796894484095,
                -0.7232650607046592,
                -0.179254073493091,
                1.0059683725709114,
                -0.0944836399531218,
                0.8840397598921048,
                0.785660539600117,
                -0.11401966740514737,
                0.49781201650085605,
                0.8002179844679467,
                -0.0004958712240808945,
                0.18839669637524553,
                0.20837597758379073,
                -0.9368037918804524,
                -0.9279224195232684,
                -0.06875354637950966,
                0.7740249956138838,
                -1.6451241425735887,
                0.9205979709781078,
                1.3041194441585024,
                -0.43191669566730917,
                -1.9445712106081396,
                -0.40913146880965845,
                0.40299927268158947,
                2.565590504614364,
                -1.0566638041571692
            ],
            [
                -0.2626034558587639,
                -0.5820012598990106,
                0.31535117009033903,
                -1.0610226958698192,
                0.4743496473726233,
                -0.12327908452210323,
                -1.0960031797228567,
                -1.013364427411532,
                0.11777464157049869,
                -0.8090428468874586,
                -0.13134429973252676,
                -1.5028151519202357,
                0.20321427411010162,
                -0.3031267049756788,
                0.476559450237841,
                -0.44331916939577715,
                0.46947606654178975,
                -1.4845193861671977,
                1.209898549168968,
                1.3473170290104084,
                -1.671123762700348,
                -0.5464134773671702,
                0.2716045431101271,
                -0.42205473864858095,
                0.34790071099973463,
                -0.18118707908774673,
                -0.09591323720529635,
                -1.2878666423770082,
                0.11804151795468461,
                0.2175405714509755,
                -0.9194930696734509,
                -0.6911142145386375,
                0.13664222416124697,
                0.2155046077774693,
                -0.881622844696538,
                0.4314288815296072,
                0.1886114869944731,
                0.03516337985713871,
                -0.3550060982306584,
                1.1279901235435377,
                0.388533112551875,
                0.5037490388096914,
                0.5688743746626536,
                0.6247566545293849,
                0.3940653730790122,
                -1.823712842537314,
                -0.4949879634060264,
                0.5143135857348226,
                -0.9762203900995605,
                -2.9155651750354528,
                0.08165342198195455,
                -0.9026729520272856,
                -0.32089101490341176,
                -0.6128660611177067,
                -0.5772446238543608,
                0.6925723430786427,
                -1.083809431330636,
                -1.1655824722767678,
                -1.2808175231154388,
                -0.5727027025172524,
                0.6815877867270842,
                0.7052803784921925,
                -0.2519585904994254,
                -0.10390447110386973,
                -0.4520434594749518,
                0.45411242960049214,
                -1.5035313255045952,
                2.610568338365358,
                -1.1131956593385592,
                0.15752077735213563,
                0.03891859290193074,
                0.8619885252549608,
                0.34350483841752943,
                0.5253598978085746,
                -1.6565923331650145,
                -0.3722449660375039,
                -0.43196098297983193,
                1.4415521174922172,
                -1.5348929313963664,
                0.9753465841368303,
                -0.7058263222183091,
                -1.8156802907807257,
                -0.6471057812642338,
                0.033713749295019274,
                -1.6084131770182382,
                -1.4222041835396486,
                -0.6749680720836931,
                -0.2634978067676969,
                0.12526952406720113,
                0.8826126776708434,
                -0.16905103897125254,
                -0.42411413397177555,
                -0.9441896456574331,
                0.09142174755119611,
                -0.34692022119426924,
                0.1505165069921702,
                2.264984647592552,
                -0.789528133188446,
                0.6960200610644298,
                -0.027602943119163743,
                -2.070772532504962,
                0.5443307347758218,
                -0.7475971722845453,
                1.9359713203512208,
                -0.3370447877368321,
                0.5332246845232965,
                0.4190291739676822,
                0.34559764497477174,
                2.1578324112239833,
                0.4521893570297417,
                1.427707250143258,
                0.6266203114925079,
                -0.9017480493096071,
                0.03956195620321286,
                -1.117273197884178,
                -1.0487260857048268,
                0.9391602543515648,
                0.3733523201406827,
                -2.132582408948038,
                -2.0527174970237825,
                -0.5296865963769883,
                -1.3295614649895982,
                -1.2297310492364144,
                -0.9274908747667392,
                -0.13917177890220156,
                -1.138902938468625,
                -0.986893090134638,
                0.07211152819958015,
                -0.7639640211465054,
                -0.8127660808262561,
                0.3994224334717957,
                0.13239910151449424,
                1.914110799128448,
                -0.5983856203444629,
                -0.398866711669852,
                -0.2151950220749822,
                -1.4555562204940342,
                0.3352499080346086,
                0.40959809034565703,
                0.8780927956042909,
                0.08629559777096925,
                -3.550971602317076,
                -0.18906848520955036,
                0.7752879400117638,
                1.6044297087730799,
                -0.8789529349217899,
                -0.6475589654882231,
                -2.3734787355002047,
                1.404403953090888,
                1.6564354305766744,
                1.1586863964741865,
                1.1002038652120987,
                1.4618662797140751,
                1.3673009000969054,
                1.560890927290474,
                -0.8789910366310294,
                1.1219035193682436,
                1.0877588508218343,
                0.42772002340819143,
                0.6448275112657079,
                -0.5216355596300519,
                -1.0375776510810177,
                0.25426191420470867,
                0.6656690049979639,
                1.3419575747353445,
                0.31053282564769313,
                -1.8450993036380647,
                -1.6374658008624237,
                -0.8660041343450526,
                0.4447855793337025,
                0.4148914401201328,
                2.8625213971043055,
                0.1912537260344223,
                0.953255164771904,
                -0.28067043712916995,
                0.23417821135375141,
                -1.192117031148913,
                -0.3509191032241041,
                -0.4349876433527332,
                0.5551296980388992,
                0.1480190094654893,
                0.538050611967009,
                -0.5957129898104389,
                1.6926720827779609,
                0.32634895444547046,
                -0.48431652947683607,
                0.03472256070471887,
                0.18462929381023152,
                0.6630608243564651,
                1.995256881116334,
                2.115547096727366,
                0.3568946849470168,
                0.2697214470009342,
                -0.999971886017369,
                -1.0976864705346843,
                0.3252468157806591,
                -0.2564371032760467,
                -0.43219526788016105,
                -0.7058418513868155,
                2.005396330046693,
                -0.4391101276467151,
                0.37651708954775576,
                0.5612693418407118,
                2.644008562091108,
                -0.9940827713683961,
                1.622412591836159,
                -0.8183648704142605,
                -0.4256142672491356,
                -0.8250357291471554,
                0.368363349758476,
                -0.18161718728223897,
                1.1888516750499747,
                0.2424800868802918,
                -0.5703051792695674,
                1.223879872525697,
                1.3588818179966016,
                -0.6950287616545433,
                -1.182414808400953,
                1.1810669134934317,
                0.3693576999714035,
                0.5823946258161639,
                2.01501798464206,
                -0.2779879617294994,
                -1.1623370334293683,
                -0.18297853427492053,
                0.057997183027953314,
                2.307688580970989,
                1.54239634057754,
                0.7284067853601247,
                0.5054102083829312,
                0.5258559574495231,
                -2.7321484617352065,
                -0.4193322486164845,
                -0.16452047513226506,
                0.38343624117733144,
                0.26875009997727367,
                -0.03156680549359797,
                -0.015606420681821435,
                1.153709583901239,
                -1.83535883007152,
                0.6221665515627165,
                0.6754292201975058,
                -0.4248811706657736,
                0.8531553343911328,
                0.6443322795641947,
                -0.07743103529717682,
                0.44891394843279403,
                -0.8065271626036487,
                0.22892030242992242,
                0.8798464242204238,
                2.1882817141569006,
                -1.3776322073388065,
                0.6974903118602647,
                -0.623950168561696,
                -0.38784206692559126,
                1.0537150245843983,
                -0.5472991791493342,
                0.03731643017147844,
                -1.6920741102448993,
                0.7223979952531226,
                -0.21588917896724563,
                -0.004674317183454219,
                -0.8389456699787555,
                0.23957171101563499,
                0.10041183008458111,
                -0.12487695846225401,
                -0.44065451071801676,
                0.3677581066646485,
                0.2966204600282344,
                1.8485537202500213,
                -0.49990074609150903,
                0.19525991036377952,
                0.732683527055462,
                0.42283437769621857,
                0.9320292555514403,
                0.7717963250826005,
                -0.8564806871101148,
                -0.303292243896899,
                -0.9150864765210212,
                -0.9217498414232972,
                1.8437392672431427,
                -0.6164963755395174,
                0.9263890648845602,
                -0.88077321271721,
                0.5485521860605878,
                0.9210841879564255,
                -0.21155942108857914,
                -1.130653862487776,
                -1.0150057795808505,
                0.6708013160412389,
                -1.4902962560663637,
                0.24375522104716182,
                0.5117190936916522,
                0.9616509212583575,
                2.130115142220036,
                1.2882971158645586,
                -0.2526103568378233,
                0.4605043937334876,
                0.6958423469302071,
                1.1725361911627192,
                1.0122211061986204,
                -1.1502955995567463,
                0.6304190168733688,
                1.2758287176907814,
                0.4468990374343185,
                0.2115367260218513,
                -0.2719985568974415,
                0.17395179055378082,
                -0.5673344363228617,
                1.4508431379024564,
                -1.0367642540125688,
                -0.20116054043517034,
                -1.1627933558729313,
                -1.1446676370937854,
                0.6753892608915787,
                -0.5110809278311198,
                0.9421843652796998,
                0.06423597656570593,
                -0.04700047415772078,
                -2.094724092146248,
                -0.40141728987670083,
                1.2189678052188895,
                1.9135698808643513,
                -0.11174269311950946,
                1.1015599568366834,
                0.8354346624572567,
                -0.29187209231555805,
                -0.41660979434716655,
                -0.9206714741741234,
                -0.7538890466041925,
                0.583177556047832,
                1.354358746016393,
                2.101972104753301,
                -0.09713541891857297,
                -0.13821934875139572,
                -1.3027414918695706,
                1.7017632386083883,
                -0.14118007754843334,
                0.19080268528197913,
                0.7971197837028215,
                -0.2864875072931283,
                -1.0129533899716947,
                1.5026329224219979,
                0.061874661876782616,
                -2.0670027887223545,
                -0.8767445133900633,
                -0.5870611597481875,
                0.07243916631240253,
                -0.3245641264282917,
                1.5967473216248382,
                0.4441754527798281,
                0.5214019826941425,
                -1.463718163468301,
                -0.769921909330362,
                -0.3544136927651046,
                -1.5888414643665436,
                0.2954761890857442,
                -0.37955048227543386,
                -0.4454151644742572,
                0.4760423032033088,
                1.4417004664601056,
                0.7061655261287094,
                -0.074480631436089,
                0.8566729539285144,
                -1.9943739534406157,
                -0.08691693794066942,
                -0.7581110423252215,
                1.1842569129300191,
                1.4917331530970357,
                -0.474021015653625,
                -2.3138512016093413,
                1.1573164851788942,
                1.511147974501582,
                0.28994024355605535,
                0.9185352850198745,
                -0.6778141123542852,
                1.49884065391845,
                0.4288761254526143,
                1.583201488060757,
                0.8369614393731055,
                -1.2751695193907857,
                -0.8903334923130036,
                -1.2169561095046937,
                0.2936491654333301,
                -1.917881249588278,
                -0.791098156220794,
                1.367251813778336,
                0.2031863711342103,
                -0.5092165045674435,
                0.6533463889055161,
                -0.6985000831654526,
                0.4153747760283064,
                0.15374152040404238,
                -1.525827171775301,
                -2.064161714817883,
                0.2610519883050033,
                0.531268219882933,
                -0.19008231277549778,
                -0.050172782316840005,
                -0.24448362256995507,
                0.2391526132927221,
                0.7191874158579946,
                0.5011964560927075,
                -0.18383922685316365,
                -0.5452428515457932,
                0.6714138082209637,
                1.003778201385331,
                -2.0385181711940854,
                -1.5625603411334827,
                -2.4972558059439938,
                -0.36954244507530193,
                -2.2341886105075006,
                -0.27678326732996694,
                2.1984655583732233,
                -1.2966695446955685,
                -0.4916402599540537,
                -2.3717234757724968,
                -1.9056071312626117,
                -0.3248673741568849,
                1.5500004525083722,
                0.3040218498843686,
                -0.9287940252407128,
                -1.3444395301215581,
                -0.8028229780346939,
                0.5915364885119978,
                -0.13246304744495335,
                1.5236466570734042,
                -1.1262624628655722,
                -0.3859331512169398,
                -0.3099674196931411,
                -0.4567052950613417,
                -0.9702360426688167,
                1.4613850390819727,
                0.7996981940175807,
                -0.1639788805217485,
                -0.8863404033254711,
                -1.6884290062455485,
                -2.3790956430525267,
                -0.8452754347106672,
                -1.0715702373664813,
                -1.1208487528316435,
                -0.5710977180235054,
                -0.8522437179343428,
                -0.3916141639099333,
                -1.5263587791338287,
                0.7683640022622624,
                -0.9991162026248309,
                -1.1168709286396403,
                0.9847064406449362,
                1.0519367883405986,
                1.663975685511136,
                0.698287499130545,
                -1.1956040496574412,
                2.012423390303753,
                0.15739008638367655,
                -0.9554866261959456,
                -0.9244177273355888,
                -0.378336044731551,
                -0.36332356828071677,
                -1.1098280594727983,
                -0.4739748703653593,
                0.19708132984921897,
                -3.1799442346030276,
                0.22448130079563625,
                -0.9136188912487211,
                -1.6624518752775408,
                -0.6658175210953555,
                -0.5457722774306871,
                -1.4994841456347445,
                -1.8852419645895464,
                -0.11278595947444417,
                0.13318328714525116,
                0.26119542872792545,
                -0.15321164239551924,
                -0.5950335655214879,
                0.44131851878014483,
                -0.01859522496154245,
                0.7331036891259387,
                -0.4414959155886834,
                1.3984058420596803,
                -0.4962128093303627,
                0.2907067755285293,
                -0.5552447163774237,
                -0.8045324076168201,
                0.8444491773489814,
                -0.6211185242973732,
                2.010067944169837,
                0.14627836112976583,
                -3.769267315447226,
                -1.9133208994292779,
                0.3051485805489761,
                -0.3327010604460334,
                -0.5899702978062896,
                0.4558599642519389,
                0.27431509410977484,
                0.9487434805278359,
                -1.2063202042987684,
                -0.16409381342065102,
                -0.011463829150541494,
                -0.16685272165848655,
                -1.6756042834111189,
                0.20280389345905958,
                0.744393122937628,
                -0.7804837010136145,
                0.01706732802976956,
                0.5306879545887264,
                0.13338011258239513,
                0.752733893122641,
                0.44022875236941666,
                -0.029477879634368376,
                2.1514112270645964,
                1.5340104623848048,
                -1.2187029628151855,
                2.317998301199925,
                -0.5481527168806491,
                1.5047971022124191,
                -0.14681760538475577,
                -1.135419563078638,
                -1.9144844863829844,
                0.8162905472984843,
                -1.8745789430837612,
                0.023025938362583362,
                -0.8503650716350236,
                -1.3616779481003698,
                -0.5798675076173112,
                -0.7611374775934281,
                -1.6037557077427729,
                0.050887582297238845,
                0.29912047943179804,
                0.6240208355229172,
                -0.03165207483250405,
                0.9351775159568331,
                -0.10131985321838573,
                -1.0449879934653317,
                0.5585797361635627,
                -0.29453384127344373,
                1.0723124070139074,
                0.5455293198248033,
                -0.3380305097419597,
                -0.10653216128618549,
                2.0253657272234507,
                0.6891199446692349,
                1.5863665500288404,
                1.4129357487423997,
                -1.8226588529785046,
                0.40027282583048773,
                0.43326369147069654,
                -1.7991751181644924,
                1.2380511006402106,
                0.43808818949114414,
                -0.005213990137250545,
                -0.4781228122734785,
                -0.29776511563901725,
                0.5622479365682268,
                1.0542863185091087,
                -0.592593706066333,
                1.288247771635306,
                -0.5543251807753521,
                -0.840006066751779,
                0.47387666846038323,
                -0.5629719522268442,
                -0.4241611073241298,
                -0.27124039201300115,
                0.5413519526926138,
                -0.8365944233387758,
                -0.9063941197894263,
                -0.9822885759200661,
                0.6819217127200613,
                1.5487318820137468,
                -1.6409952098306086,
                3.2503135821064464,
                -0.4550987616492675,
                0.6255213083398977,
                -0.79096396821181,
                -0.14525282633269276,
                -0.926104807893274,
                0.5303158353788142,
                1.0488711957284054,
                -0.5269933392182345,
                -0.7864126460832032,
                1.5269957753158871,
                0.1430901570185611,
                0.6554675926751666,
                1.1019893615102543,
                -1.050108694663543,
                0.6457333196675356,
                -0.9140100243927144,
                0.9202261203403844,
                3.0910093879099203,
                -1.7052720543209194,
                0.8009176425531863,
                -1.32820179511115,
                0.11763624910585804,
                1.0647437128048025,
                1.6653068875712287,
                1.489655951265931,
                0.5079173011829762,
                1.4296522735419865,
                -0.652016791876278,
                1.3561568987698636,
                -0.5930599769946089,
                0.6024736487960651,
                0.46784828527444944,
                2.185632756849482,
                1.0974192131280018,
                -1.8794227886897323,
                -0.23889140942316808,
                1.0183826281394774,
                -1.0853883520853425,
                -0.3840489933607233,
                -1.4906268864387648,
                -0.6998815566178939,
                -2.2189764693256655,
                0.7086731315464722,
                -0.33456720653382604,
                0.2564790353715192,
                -1.5680599344021644,
                1.8641831697575966,
                -0.5729708270776702,
                0.11141072986552902,
                0.19250534509540046,
                -1.6209718898038408,
                0.9444030016532677,
                -1.0088485897213757,
                0.6775295364973255,
                1.212273923156264,
                0.3159755216450429,
                0.31103289939341555,
                0.4786641117524936,
                0.4575160690336461,
                0.9261307768734555,
                1.426769773939638,
                1.6275603644794259,
                2.706707662331848,
                1.4491591852337133,
                0.05873018289996071,
                -0.8653154057503765,
                -1.1528080523869604,
                -1.0783590327609873,
                -1.214141176215405,
                -1.1116539986235512,
                -0.9626675997903867,
                -0.06836706178414165,
                -0.8422899935432911,
                -0.9768739568365417,
                -0.83959662012349,
                0.165615094168623,
                0.708445939761396,
                0.564580238745447,
                -0.9010297895380153,
                0.177616542427661,
                -0.600725735450942,
                1.3589060540701197,
                0.2135196272582736,
                0.9708911234719223,
                1.04287584152311,
                0.41608820657535817,
                1.9360160476281834,
                0.812658732062787,
                2.1687870469622568,
                0.39672062419809034,
                -0.8630308939626893,
                -0.8164286465116117,
                -0.5820093807288921,
                1.2649117641639789,
                0.3028005013998928,
                -0.9086866849032066,
                0.9128361711882358,
                0.3933353446269048,
                -0.7686113487163266,
                0.6920340619865601,
                -1.5168376603314908,
                -0.07441112333042638,
                -1.4881613489891479,
                0.2402058958979161,
                -0.4135378837191477,
                1.3569210644841112,
                0.212224967215537,
                -0.4251459604851868,
                0.3849118079358289,
                0.983058628220328,
                1.2683406595695719,
                0.60919699329498,
                -0.3976618555048269,
                0.2026141932731491,
                -0.5294438038427127,
                -0.7073038946911876,
                -1.7349278999517577,
                -1.7827729764858595,
                1.1858481185189311,
                -0.9056056377620469,
                0.019004145497938288,
                2.6811692843362462,
                0.9080408979926483,
                0.4086404972039728,
                0.5015794249260283,
                2.578915017567544,
                -0.6036274543783072,
                -0.7242588972470672,
                0.37625480638572556,
                -0.6525558778402009,
                0.22292937548760022,
                -0.8782834262806624,
                -0.8912687935181127,
                -1.0092744820415183,
                -0.6892898196967286,
                0.05453476851535317,
                0.6569674048163126,
                0.07528672779442361,
                -1.689974448459001,
                0.6977805377926907,
                0.6458432117310771,
                -0.8935993040529161,
                -0.15918376727228845,
                -0.918040405837779,
                -0.7091537541594582,
                -1.925188143037088,
                0.40205204790412685,
                0.12343514847713742,
                0.658492513259286,
                0.9938685547259916,
                -1.329202864251199,
                0.16227357928915764,
                -0.6821601859682437,
                -0.13107600715971726,
                -0.5127246224212492,
                -0.7715366548498883,
                1.2569486647635455,
                0.2111807308133721,
                -1.2412105300843255,
                -0.36035666494905394,
                0.5974873639673721,
                1.534801980462622,
                -0.14367477719078278,
                -0.983182640300501,
                -0.5998646457305453,
                -1.2901370610365213,
                0.09454278369438948,
                -2.2880731473901124,
                -0.7429592951465792,
                0.15893802495592182,
                0.18020793713464056,
                -0.7269958325945305,
                0.8610499540614556,
                -1.6847721297785798,
                -0.4378568637395792,
                -1.560965295567593,
                0.7597620762275207,
                -0.08293844468742737,
                -0.6200125787362064,
                -1.5035802805087846,
                -1.2040054697888283,
                -0.4738932791344362,
                0.6514626319040677,
                0.32388463580918564,
                -0.7809766567153387,
                -0.7409415661528528,
                -0.6376112687713448,
                2.4837714277279277,
                0.04986075528588092,
                -0.6115998831357924,
                -1.3346785161252184,
                0.623299898062331,
                0.4905759753577016,
                -0.29687545783543984,
                0.6447303605815389,
                1.295968673774204,
                -2.382353624170033,
                0.34249632918125744,
                -0.8272029603338551,
                -0.846522620134435,
                -0.8533053060841302,
                0.00537523989326861,
                0.6193497814748009,
                1.314453942715719,
                1.1257742774784705,
                -0.3291898152647411,
                0.5880568896166223,
                -0.13819090929843852,
                0.6193634798509896,
                1.0698849431961828,
                -0.1588198722920237,
                -0.04383561570041547,
                0.30438878342064307
            ],
            [
                0.6620046246640515,
                -2.2619168878526104,
                1.0189236067259728,
                -1.5192277366491516,
                -0.2938615282601034,
                1.252731603506373,
                -0.5733406417433965,
                -0.17212326542672338,
                0.48985193976351993,
                -0.37267835359094764,
                -0.40917948614125765,
                1.1334301994422196,
                -1.095090582116276,
                -0.649671890491455,
                0.2493060443245201,
                0.013606194093554772,
                0.024481647468840753,
                1.3155763984357212,
                1.2145336146671704,
                -0.1573177033787182,
                1.9195845139079468,
                -0.2650007993415229,
                0.5890210140049438,
                -0.8668877075058792,
                -0.7710080728889337,
                -0.8508178485365707,
                -0.6242515648545415,
                -0.08194793161799807,
                -0.8325425042670545,
                0.4119225414788915,
                0.37901957170831635,
                1.0654640122155297,
                1.3467977610434496,
                -0.25403328578151213,
                -1.0758575621616968,
                -0.8317981598253719,
                0.29417118809732845,
                0.5311018238334444,
                -1.4318634476527625,
                -0.11962620515023357,
                -0.9361393003064563,
                0.9262291773972001,
                0.5876021822355829,
                -0.5269156859459061,
                0.6856168087631218,
                1.1249166524401302,
                -0.24639326940547082,
                0.40389651302961427,
                1.312849153507918,
                1.224744825464857,
                -0.6643064148333874,
                1.1365049085567687,
                1.3698768378794839,
                -0.6369134140660804,
                -0.43196779728061396,
                0.2907517698663331,
                -0.8457248000344347,
                -1.1092738690033928,
                1.1784958902672737,
                1.3762986299350644,
                -1.0287902915155407,
                0.24376315609621785,
                1.190989279525521,
                0.002772424700166346,
                0.0664421201382576,
                -1.3071877866715556,
                -1.4814651120244864,
                0.05750535712977901,
                0.3163821505554998,
                0.10571569338766236,
                0.411369955796664,
                -0.41079745779476134,
                -0.4992564805033567,
                -0.1897083203768526,
                1.6357729047902865,
                -0.3769801788621584,
                2.1569115981433655,
                0.591199944718599,
                -0.5047940084489577,
                -1.6141351982760732,
                -0.13673952263454894,
                0.12874052791575172,
                -1.1271301949462516,
                0.5858383601714312,
                0.5099037229955372,
                -0.3453833378202857,
                -0.3489066220744434,
                1.388613485074395,
                0.5193768141216664,
                -0.00371736070964821,
                0.17596942824263004,
                2.2500802659345376,
                0.2623256828402752,
                0.4162878105257855,
                0.38008350585966993,
                -0.8158437062362897,
                0.6077953363248179,
                -0.13525428573201756,
                -0.4320002191299046,
                0.12683615460343964,
                2.4191635168010683,
                -0.16789175191633102,
                0.2355532081027842,
                -0.34176408034571915,
                -1.409239805505844,
                0.17620458002220343,
                -0.5168233128807187,
                -1.44381959753925,
                -0.07847996540586442,
                0.11417887627445941,
                0.4947924673545348,
                -0.7964326953465839,
                -1.5985530410384665,
                0.35399201940552655,
                0.1404486287405388,
                -0.5015124654418522,
                -0.2682659805222816,
                -0.8763559164740826,
                1.124678060637189,
                0.6549431524783077,
                -1.2485833578848278,
                1.268483617661157,
                -0.6222865693228353,
                0.4505585608491115,
                -1.3128590368598052,
                -2.4278844597904503,
                0.03857840928291568,
                0.9425122955312565,
                1.4503244720980581,
                0.8493300165916261,
                -0.31868398930830183,
                -0.9869707590360938,
                1.6590547138030627,
                -0.6065920135478181,
                0.37970742622739195,
                1.0632272245869934,
                -1.0473261286953006,
                -0.8377796939175757,
                -0.28800874616572336,
                1.6043797208871096,
                -0.749596840605607,
                0.9941384060528029,
                -1.2780722002390488,
                -1.167606874527194,
                1.4159814769018375,
                0.12926426620981737,
                0.5738326024874955,
                -0.1654389723683107,
                -0.2601636840146131,
                0.6406861296018874,
                2.5406182384971197,
                -1.3172883908650481,
                1.4199167673396047,
                0.2613046945795984,
                -1.209057908678981,
                -1.0097026952386652,
                -1.8355175942934199,
                -1.7112234938827533,
                -2.64430716164264,
                -0.8706579464263887,
                0.5583453800800606,
                -1.1361806531989727,
                -1.7285502108956858,
                -0.09142623694225896,
                0.8484779011165949,
                -1.625176054243883,
                -0.28873620214619583,
                0.09900527505170233,
                -0.8871471133142549,
                0.7637038288243468,
                0.6685421664470005,
                1.143078780093794,
                -0.7191888188633396,
                -0.41269586062830727,
                -0.013630436425091286,
                -0.9735380433136718,
                1.2557149618320318,
                -0.3098857007410924,
                0.777969270874507,
                -0.9150828587125093,
                -0.8472697239930737,
                -0.6152764063217278,
                -1.485322313546007,
                -1.649715014776552,
                -0.6805741743190326,
                -0.5788126295108937,
                -0.7008161981380926,
                -0.025321550541807646,
                -0.01866933963092855,
                -0.5282306506615293,
                -0.319726289289403,
                -0.3634812182094047,
                -0.4457089557917337,
                0.9269819056793949,
                0.8932294427018976,
                -0.5087822733593214,
                1.2233865664147066,
                1.4502771556359129,
                1.4134464314743118,
                -0.11968449599527149,
                -0.46431011887811796,
                -0.854462333938333,
                1.4659580189146806,
                0.09835922782728404,
                -0.018635647686092414,
                0.4927036177230758,
                0.6883094995239531,
                0.04196735209893903,
                0.6148989868120287,
                -0.43505058453493456,
                -1.8410545609061781,
                -0.6341712102767612,
                -1.415718873523386,
                -0.3212726325823175,
                -0.22451799126615482,
                0.2741521282000758,
                -0.011979982259724162,
                -0.6321301821243932,
                0.36662220199654766,
                1.0051313988177104,
                0.04998354651504505,
                -0.998526340397495,
                -0.5226693240790234,
                0.8699301376054237,
                -0.7355776459476255,
                0.04960445495986191,
                0.9188140526743893,
                1.478758834953587,
                0.647255917644984,
                0.005237649079157486,
                -0.22993977658594036,
                -0.39115809544296337,
                -0.25471679091471283,
                0.48276879338647083,
                0.6030130367235594,
                -0.7333698836780737,
                1.5442048101641874,
                -2.1722045659911204,
                -0.931862463109088,
                0.01246344275228391,
                -0.8697363181434794,
                -0.09470559849444946,
                0.794079337672185,
                0.016585977050160114,
                -0.40130234789338554,
                1.0837224244247705,
                -0.3990681092253547,
                1.5717230438783605,
                1.3734144229148504,
                0.5179489971059826,
                0.08047181824671074,
                0.18696997399415044,
                0.17506077263464911,
                0.4351542551903315,
                -0.004858952647598877,
                1.499444237769001,
                -0.6312673152475724,
                2.5922025919808482,
                0.37970961531795083,
                -0.14852382241592071,
                0.21647423859633355,
                0.9375148319280573,
                0.29079978473310036,
                1.3453147439298434,
                1.3214670700095743,
                -1.2988762360644266,
                0.5537977306971206,
                -0.3801457464313452,
                -0.106680627576223,
                0.401841807376868,
                0.9619804603147566,
                0.21064379417504392,
                1.5821451362886008,
                1.587089546865794,
                0.5200929766276831,
                0.7909114102447978,
                0.0842344275755962,
                -1.8032983391316832,
                0.03198173765681182,
                -0.10836126314560796,
                -0.7167655803411525,
                -1.219320191459271,
                0.3010519003255261,
                -0.5813150670472513,
                1.423302919901758,
                -1.034350176768799,
                0.5796018049903646,
                1.2983813013382568,
                0.6170300398977551,
                1.0904436179405252,
                0.6141902185178558,
                1.740820841928951,
                1.11430894928784,
                1.520895135866767,
                0.45620329595233455,
                0.47754408099363516,
                0.08417212380890533,
                1.5087269500784077,
                0.12001030802307378,
                -0.031126569160658778,
                1.393330209122531,
                -0.27167230598041825,
                1.313776842082689,
                -0.012321659319526335,
                0.9242488072513564,
                -1.183401910174173,
                1.2599845516551282,
                -1.5224419310983788,
                0.06893533121803154,
                1.1036118574528169,
                -0.6981679261229585,
                0.7013840141017859,
                1.0986768056191827,
                0.9728703319851872,
                1.3423133033771688,
                -0.1909406434597695,
                -1.1661311262485712,
                0.8315274523193096,
                -0.9265112229724994,
                1.0631349446002856,
                0.695818489480996,
                -2.044949524026615,
                -1.3888240318566494,
                -1.7648793077963423,
                -0.16315314522337745,
                -0.07252680739027337,
                1.2244325438255943,
                -0.5549187658535452,
                -0.2898674800927068,
                -0.5396644863612438,
                0.6426390084431405,
                -0.011411841004152273,
                -0.6847935324890625,
                1.1043575179141703,
                0.48888357634752366,
                -1.5620874120886563,
                0.8013836646183683,
                1.7241640227588226,
                0.5299096083232244,
                0.013472211474276161,
                0.30411349913770686,
                -2.0900655733870757,
                -0.6381542829625254,
                -0.7717210530271693,
                0.43541229205099724,
                -1.175166257321515,
                0.8724437954342786,
                1.3944410769438744,
                -0.3484540246407897,
                -1.745828730281331,
                -1.0008984640888992,
                -0.33548692761899657,
                -1.0801225880455994,
                0.9150410312079796,
                0.492039120135954,
                1.3238112409475558,
                1.4953590027023702,
                -0.9214614348984296,
                0.5136582922960458,
                0.12786078052324298,
                0.9570103722030254,
                -0.9017443836937292,
                -0.22224676083328246,
                1.3857204190225294,
                0.3746004678232366,
                -0.08735678743867685,
                0.8552432023438966,
                1.8161947552295559,
                0.6173270479896427,
                -0.7865428407528546,
                0.23918401114549398,
                0.5497002554954347,
                0.4121028795243685,
                1.4081125215669197,
                -0.5194458984353602,
                0.020502352266674,
                -2.4973398667296896,
                -3.4361106374993633,
                -3.43486095755199,
                -2.2114766516213247,
                -0.6557393807087246,
                0.2717306399342625,
                -0.496862558879957,
                -1.5921353920039767,
                -0.2720307153300015,
                0.22549310796137326,
                -1.2125866710684892,
                -2.036425312038218,
                0.30857113479896137,
                0.029222925674279778,
                -0.06908469708758187,
                1.4178455687736853,
                -1.0458882899148956,
                0.02083034207984357,
                -2.576152457179379,
                -0.00013247711683335819,
                0.4468930061943864,
                -0.2892141675736588,
                -1.2323947064370597,
                -0.3529302729504551,
                -1.2091683011463719,
                -0.34674648008550685,
                0.13825451652340098,
                -0.12357430536524455,
                -1.8862105557998745,
                -2.40608309260634,
                -2.118402013324811,
                0.05587724731687445,
                -0.501011465606898,
                1.1013107568161264,
                -1.3526526835071648,
                -0.7475679283967804,
                0.7688536434695656,
                -1.2218304678348615,
                0.020142381499621227,
                -2.107843682818589,
                -0.2710362236994451,
                1.0900528736989563,
                -1.3322640739787985,
                0.46408302665724027,
                -0.5926250700048038,
                -0.7102445879821958,
                0.9658518705260394,
                -0.08618072536364381,
                0.6371674928499216,
                -0.9180699898128107,
                0.48538107054321894,
                0.5522340077371901,
                0.9338989081718505,
                0.4216923057676183,
                0.5273189748682564,
                -0.24875245154789496,
                -3.947748506661672,
                -2.3296040981122808,
                -1.2498571662587887,
                -0.11698787865960192,
                -1.5894474194136274,
                -1.5769726896938672,
                0.10184080307993526,
                0.25796116039502986,
                0.05320472772377968,
                -0.8346392163886587,
                0.17829063238896428,
                -0.8979873439145853,
                -0.1400566316907042,
                -0.634626127074784,
                -0.16538751402682328,
                -0.9299223102696156,
                -1.5400237028097477,
                0.4458896317221571,
                1.375907718333144,
                -1.4548460854213137,
                1.3567476584199896,
                -2.4916689678316515,
                -0.3786146281497655,
                -0.28106120676744484,
                -1.3703970913230525,
                -0.9110306176915096,
                -1.2775227138597454,
                -1.6705333908424744,
                -3.8906531656669543,
                -0.5252756947869145,
                0.05032165172891013,
                0.5169934329960273,
                0.30447873832818545,
                1.4028564962947896,
                0.3924459354476455,
                -0.2813387726588064,
                0.5738509593875345,
                0.9712102528826517,
                0.6905783699188235,
                -1.2700300245356346,
                -0.1980180088528716,
                -0.061553580713434246,
                -0.9114492841837306,
                -1.1055404560912772,
                -1.0757969728697374,
                0.654965162138895,
                -1.223689760134686,
                -1.2037361871732994,
                -0.02285863593153809,
                0.3596872507222208,
                -0.9897301243312413,
                -1.0792385935122393,
                0.3750965797469441,
                -0.31797856499111565,
                -1.841683300538366,
                -1.5563208592873492,
                -1.5163272796077603,
                -1.9194386429401138,
                0.3458648787169601,
                0.314806054848067,
                0.4622335333173981,
                0.26679630539757926,
                0.2530492782598021,
                1.50999655847927,
                0.08563147596790553,
                0.322901552454829,
                1.7314662941892476,
                -0.12349901415442169,
                -0.42178064938363447,
                -0.5770309752796631,
                0.3599289467005801,
                -0.23108994115494777,
                2.775578746169751,
                -0.8450447057196165,
                1.0553171363893568,
                0.013299473738320683,
                0.3926509535076021,
                -1.0819234980364505,
                0.6324381797514421,
                -2.3202096714824973,
                -1.0524650280543204,
                -1.951543193744899,
                -1.4560149773251212,
                -0.7948263897760948,
                -0.7280040258992191,
                -0.23161167811197345,
                1.0237273199043657,
                0.9324660075561861,
                -1.3570557586562912,
                0.6492986511555862,
                -1.7869333072767866,
                -1.0246408758288825,
                0.04016408512591418,
                -2.288314282530543,
                -0.08511806803140379,
                0.38727670475453246,
                1.3925232703801596,
                0.039948320484033586,
                -0.3063854916527064,
                -1.6912971219816522,
                -1.392580725847614,
                -1.8165209141508865,
                0.2240116257670065,
                -0.4145776422884591,
                -2.885990003249841,
                -0.7444663358136915,
                0.6703765579817348,
                -0.4687497878896937,
                -2.085575321451095,
                0.19744641675196975,
                -2.2522806325910185,
                0.7393052517272249,
                -0.9576181355411931,
                -0.32644063019457814,
                0.9331740232558253,
                -0.6378133265942132,
                0.3760816379348091,
                1.1686594160151889,
                1.2243475050482304,
                -0.16026735754013247,
                1.2295868250788944,
                -0.4207780233931208,
                2.0230893561009835,
                0.5648544924159619,
                1.7456801981680632,
                1.571195491329973,
                1.2750997313196792,
                -0.35142572431165126,
                -1.8703618971801825,
                -0.6127760123510118,
                1.614232429703595,
                0.4077021274024752,
                0.3300928088279534,
                -3.188534191495718,
                0.156196982680873,
                -0.2600714526225641,
                -0.8427204925754642,
                -0.5295853120739459,
                0.28735465887270095,
                -0.8744761080700766,
                3.1440532856088823,
                -0.8441411531690627,
                1.1478934152085607,
                0.23029690818167553,
                0.19965566995106312,
                0.19469860252768617,
                0.005645266062421704,
                -0.7956570733946435,
                -0.9861138486401436,
                0.27099968409558695,
                1.5461343392398061,
                -1.070059763816282,
                0.6859656354401155,
                0.5571113244323798,
                0.09089721444918097,
                0.39896340569353145,
                2.1806911367547968,
                2.0319748697818802,
                0.8282643682944008,
                -0.255589511169331,
                0.8274622328205102,
                0.7232634199641849,
                -1.2614491482512726,
                -0.555260320275907,
                0.22780124551103986,
                0.3551463558140697,
                -0.84659390700108,
                0.1881444198619891,
                -1.2039366869560584,
                -0.4249824161625609,
                0.5352009089469001,
                1.3484168672952552,
                -0.8544260344114363,
                -0.28751884546204864,
                -0.2429022823748881,
                0.961365504925528,
                -0.44533198602079277,
                -0.656806788222975,
                -0.174900773192729,
                0.28940928739121063,
                2.018853318497212,
                1.652418306829899,
                -0.33002370878318726,
                1.0234424848981503,
                -1.3938144923173283,
                -0.6748681773456523,
                -0.10215131110903337,
                -1.7061648067527637,
                -0.8233026457703377,
                -0.44304903763698267,
                0.8123846548766764,
                -0.6445136469313748,
                1.0330386393219353,
                -0.19123253718727584,
                -0.7628546518611088,
                -0.5653271476446402,
                0.9630183391554716,
                -0.3203871585373303,
                -1.913841106400126,
                0.9730400982677091,
                0.4019247993135209,
                0.8404319185878488,
                0.5333955169811949,
                -0.98126021207299,
                -2.1578834014619397,
                0.5079460364795252,
                -0.6926822874155409,
                -1.3374291083248422,
                -0.05545491558370897,
                0.2129817300355168,
                -0.5448824575951802,
                0.12696511699465524,
                -0.9289706086851415,
                0.524411486110088,
                0.015288718112725577,
                -0.713285061382667,
                0.01355477822831865,
                -0.252083417051926,
                1.1669175077609795,
                0.5805645422253044,
                0.7667429949123946,
                0.5613924553330527,
                -0.5291699793799711,
                0.8355586340529175,
                -0.8735256362796873,
                0.8952959052420485,
                0.42458118104704107,
                1.2866578114881715,
                -0.3419565696993275,
                -0.32755476546387785,
                0.8421800828881691,
                -0.29717185540349866,
                0.11305523665196263,
                0.7907239051104376,
                -0.723914383545524,
                0.9740957581486521,
                1.1091653398425425,
                1.653349697856512,
                1.3498161594702192,
                0.6231364535271626,
                -1.555909374118303,
                -1.4622953394720155,
                -1.252580620141263,
                -0.059112862786679495,
                -0.6559291527555348,
                0.27231682725535505,
                0.6961743256163349,
                1.4178351889535568,
                0.21586040720057942,
                1.9849903279098822,
                0.349500656652793,
                -1.314894644575182,
                -1.092748126664905,
                1.4212788441334274,
                -0.5934018509690129,
                -0.7792946027627977,
                0.5420767124023678,
                -0.20720127000340216,
                0.4243002060523053,
                0.8830067523780517,
                -1.740040296580327,
                0.726435142871339,
                -1.2816806241224852,
                -2.013895444692235,
                -0.1725776698931469,
                0.9738118957868404,
                0.17805377616223822,
                -1.0773191677267722,
                -0.1865202599449175,
                -0.19560734198765728,
                0.2847760046100733,
                -1.548655591688781,
                0.29417445266015974,
                3.6227337157826978,
                -0.06614497032643477,
                0.39898382226726165,
                -0.21395808101117347,
                0.9527586932325977,
                0.8951667855894211,
                0.2334611139925582,
                2.1460247634889362,
                -0.4015821947986554,
                0.5617720829828975,
                2.2396067429497637,
                0.7499004162210334,
                -0.23166112883107956,
                -0.04032504330205489,
                0.7772291661544932,
                1.5098438818275983,
                0.12363356194596356,
                1.5714394721480305,
                -1.4955632186821604,
                -0.2104679525378235,
                -0.5578398431113363,
                -1.6832436082499,
                -1.2116538596833253,
                -1.1230593903979176,
                0.5953436065829996,
                0.03680684809808384,
                -0.0372145172237437,
                0.3170979046332815,
                -2.088073254695926,
                1.2537200112454383,
                -0.3217501893075829,
                -0.2036399641884748,
                -1.5553774912611553,
                -0.35360822570117884,
                -0.567046719329007,
                -0.2802931163827789,
                -1.0475491740841314,
                -0.6655726280191282,
                -1.9082417571713064,
                0.020182290453868847,
                0.15608918721756504,
                -0.7706735452537191,
                0.7313986303300702,
                -0.18117026245390375,
                -0.5904974934166098,
                0.08595622263346574,
                0.006900970121507971,
                1.0375934521232733,
                1.1135923813324686,
                1.8653822302292735,
                -0.8754650243681308,
                -0.7318396443833052,
                -1.5141134297638938,
                1.0171458170922913,
                -1.5553426557377605,
                -0.041511579486680904,
                1.1371082424933305,
                -0.8972014927665488,
                -0.462449483586684,
                -0.7842290070246076,
                -0.7561700348824714,
                -0.6280829610462423,
                -1.0742385376859203,
                -1.2851597453075894,
                0.8640993592408643,
                0.4287461403687204,
                -0.6524288733180832,
                -0.13068593436809436,
                0.791353110664072,
                -0.40843703493499867,
                -0.5715239792389057,
                0.3475278790102144,
                0.2110058966669017,
                -0.2937998258501971,
                0.17821392263517,
                0.14275193394896066,
                0.0329971928688659,
                0.2608966698247402,
                -0.6157376828687019
            ],
            [
                -2.5510259250526834,
                0.831802448435977,
                -0.02786097403583544,
                1.9899486387327936,
                0.027586661456310082,
                0.569350934605318,
                0.8078494905501405,
                -0.7072976029060136,
                0.7118109029452546,
                -0.6690355074520316,
                -1.051507265808302,
                0.9767548616480756,
                0.19570639014522767,
                1.0907967212388727,
                -1.0973187005112088,
                -1.28292168417796,
                -1.4914630432001135,
                -1.13792761965031,
                1.1880916519434566,
                -1.1961186968655753,
                1.2587557980549895,
                -1.9100979601951529,
                -0.18687931273302302,
                0.15829940612245058,
                -0.26150322390645764,
                0.11003524741805214,
                -0.27807586215907176,
                0.9387502735550595,
                0.34779234048562757,
                0.1378947577617109,
                -1.7736587420511711,
                -0.5606335256251,
                0.7089160972834943,
                -1.7251499430939554,
                -1.1268752950020675,
                1.1616543102861359,
                1.307285979422405,
                0.28712574901575055,
                -1.2077020474985856,
                -0.49943046924866047,
                0.9532302617732745,
                0.311272293655231,
                -0.6148336306992302,
                -0.17849495956032607,
                1.3817830046274782,
                -0.08804395677360148,
                -1.0499771342904378,
                0.6115590148014751,
                0.07664869450377584,
                -0.010786674587886938,
                2.301871247928805,
                0.15272012016943914,
                0.39074212684043785,
                1.8878890670145692,
                -0.6470553959308853,
                2.2571411964958426,
                -0.7278032026682048,
                0.8920956009472355,
                1.4831291400422548,
                -1.9242946175077504,
                -0.6672419952099637,
                -0.14891708593848482,
                0.9416906402933266,
                -0.5499259120601037,
                -1.8205302978471454,
                0.7888113910759987,
                0.42388927799605763,
                -0.19648062226267782,
                0.46021860809011783,
                -0.1980802842849151,
                -0.5410820289701515,
                -0.28246144614297686,
                0.9391482419248934,
                -1.3224764862360274,
                -1.360075789714974,
                0.7655695853501742,
                -0.09950665792375755,
                0.5172595932625121,
                0.6966084163823036,
                0.6706139512933265,
                0.6012776296811464,
                -1.5855724077989948,
                -2.3992322003369164,
                0.8622056457153575,
                -1.0652164407656715,
                -0.39595884765204137,
                0.8356335785608382,
                0.5117446218811557,
                -0.878550402239448,
                -1.2349732526312818,
                0.515078711810659,
                -1.790334663646804,
                0.46352924900171827,
                -0.5813368967638931,
                -0.2099286960250573,
                -0.5340874529523154,
                0.048213262019390614,
                0.29547539831566744,
                0.00030600614702994263,
                0.6038649923197056,
                1.4647467468123694,
                0.07888390855169515,
                -0.6832010102143407,
                0.018084840156460273,
                -1.2770673175412108,
                -0.05991412388763853,
                0.8607542727693773,
                1.0631110028401725,
                -0.05731335087508265,
                1.7272330782334755,
                -0.9893222951964958,
                -0.5888556325119089,
                -0.8995204432275825,
                -1.662189938994061,
                0.973317266175904,
                0.9027185181541932,
                1.8356402751297507,
                1.5238194836726684,
                -1.4517620848688872,
                2.735813588975725,
                -1.669983348060243,
                0.16496815431533499,
                0.07373229040585857,
                -0.8138797904503321,
                -0.21620209100079754,
                0.2663766912145856,
                -0.06234862462329855,
                2.1956333345206427,
                0.7020985147090714,
                0.23201721541335188,
                -0.9761288183969968,
                -0.4066720540898338,
                -0.8486997344448696,
                0.24333073398669575,
                -1.9993351987002215,
                -1.4804458737343278,
                0.8686402531057298,
                -0.3829283843675401,
                0.8565062820276721,
                -0.7401209292512415,
                -0.7212570211952872,
                0.1515552346074724,
                -0.6252605506573026,
                -0.7100565034199997,
                -2.502823379675576,
                -0.021721081273563782,
                -1.4791272329668554,
                0.2975589805388499,
                -0.04737214882075172,
                -1.3066217351838902,
                -0.32129392213606145,
                -1.804393127698565,
                -0.0973313761290821,
                1.545068778537224,
                -2.3689156943093614,
                -0.07891283393904204,
                -1.1946760852091522,
                0.380556217152346,
                -1.4404605983964613,
                -0.5174079428150619,
                -1.3617178946873274,
                -0.03211093506509919,
                -2.338651568762969,
                1.238424041510909,
                1.2558787218843985,
                0.633747465801167,
                -3.8371604427492128,
                -1.3660113311539996,
                1.7317858130709025,
                0.4152400863972225,
                0.0883347753478712,
                -0.31634781463385897,
                1.0632412457887468,
                -0.03612417279090871,
                -1.7520491998149468,
                -0.6376082073136924,
                -0.44588154516479256,
                1.9843501933499526,
                -1.3330582556812458,
                1.1928256561829536,
                -0.41144159614352505,
                -0.5203304545888006,
                0.07778091718696217,
                -0.9272170447658297,
                -0.665607854456212,
                -1.5773101328470913,
                1.2320608730581624,
                0.05309221727762004,
                0.3089758695857575,
                0.9813337155760407,
                0.8146719234998417,
                -1.1052968943117019,
                -0.29974446050946013,
                -0.15071297776573306,
                1.5432763657085524,
                -0.4966464594053429,
                0.2198660039209243,
                0.030944779952276843,
                -0.6806877432159479,
                -2.303774392578526,
                0.7575189987088398,
                1.142854176902645,
                -0.2682612792514707,
                -1.7777496200709022,
                -0.6982348743805967,
                0.03564093822901366,
                -1.3222961446872539,
                1.2123717655995188,
                -1.8936482178248222,
                1.0511152804927624,
                0.4773688271989805,
                0.0624255523871032,
                0.2706760440076194,
                1.6552596666380712,
                -1.0942919339895458,
                0.5591838488532654,
                1.6611007351962983,
                -0.49052400911236316,
                0.7872528466529233,
                0.9430797809850251,
                0.03876480563931954,
                0.1466775618803203,
                -0.0713478363181159,
                -0.7344081296980508,
                -0.16670615024069932,
                -1.2200564806498098,
                0.38033325965728243,
                0.8053344543392673,
                -0.8239782050496965,
                -0.07592792824978908,
                -0.3923626285117811,
                0.40614795022128364,
                0.6835620124583583,
                -1.6902162454667886,
                -1.3861148091497586,
                0.7020966116610828,
                -2.0505226668067764,
                -0.0956067765847852,
                -0.7597030566877248,
                1.4979400149501643,
                2.833775721636345,
                0.7203870119682851,
                0.40391728027920354,
                -0.425735280690866,
                -0.36993410053337483,
                1.2637292538793008,
                1.4071811401447762,
                0.03138385284902254,
                1.5925308226588288,
                -0.7294346691938343,
                -0.36481372210909413,
                -1.1094050992955755,
                -0.7222364875139264,
                1.179382188226382,
                1.4557557399893768,
                1.415311101728423,
                -1.155314560821385,
                -0.2916514870676351,
                -0.14120314218647412,
                -0.5388236893760179,
                0.5067440361757403,
                -1.1689335455854575,
                1.3533628057149216,
                -1.40476327334366,
                -0.26257821348174804,
                -0.513982653094833,
                0.40963134064325146,
                -0.9810778672752086,
                -1.70966459659397,
                0.09423336461211985,
                -0.4696103638221681,
                -0.003205535875616732,
                -1.0603204289912358,
                -1.3182497732708092,
                -0.706518438626646,
                -1.3847222227902396,
                -0.892754342329875,
                0.5976613872589137,
                0.7001497238122503,
                -1.5139807941298935,
                0.10257680543293951,
                -1.0204525218325837,
                0.265879856727686,
                0.5110672571416832,
                -0.06731772911137822,
                0.2535389362589955,
                -1.2437604968683345,
                -0.1740607148230574,
                0.4738493324520855,
                -1.7758048014395875,
                -0.5533353049288618,
                -0.6601545867643622,
                0.5029347976153948,
                -0.630729879135685,
                -1.8299407226158608,
                -1.0957739670505147,
                0.3547933870909301,
                -1.6006762087849113,
                -1.0247949332680257,
                0.498968792926321,
                -1.0217384703649228,
                -0.3030910909639911,
                0.5336591611144952,
